{
  "kind": "mcts_value_network",
  "network": {
    "feature_names": [
      "is_current_player",
      "turn_number",
      "dice_roll",
      "own_total_vp",
      "opp_total_vp",
      "own_visible_vp",
      "opp_visible_vp",
      "own_resources_total",
      "opp_resources_total",
      "own_resource_diversity",
      "opp_resource_diversity",
      "own_settlements",
      "opp_settlements",
      "own_cities",
      "opp_cities",
      "own_roads",
      "opp_roads",
      "own_roads_remaining",
      "own_settlements_remaining",
      "own_cities_remaining",
      "own_longest_road_len",
      "opp_longest_road_len",
      "own_played_knights",
      "opp_played_knights",
      "own_dev_cards",
      "opp_dev_cards",
      "own_new_dev_cards",
      "opp_new_dev_cards",
      "owns_longest_road",
      "opp_owns_longest_road",
      "owns_largest_army",
      "opp_owns_largest_army",
      "own_production",
      "opp_production",
      "own_port_score",
      "opp_port_score",
      "own_expansion",
      "opp_expansion",
      "own_robber_exposure",
      "opp_robber_exposure",
      "own_prod_lumber",
      "own_prod_brick",
      "own_prod_wool",
      "own_prod_grain",
      "own_prod_ore",
      "opp_prod_lumber",
      "opp_prod_brick",
      "opp_prod_wool",
      "opp_prod_grain",
      "opp_prod_ore",
      "own_settlement_potential",
      "opp_settlement_potential",
      "own_city_potential",
      "opp_city_potential",
      "own_road_frontier",
      "opp_road_frontier",
      "own_longest_road_threat",
      "opp_longest_road_threat",
      "own_blocks_opp_expansion",
      "opp_blocks_own_expansion",
      "own_played_dev_this_turn",
      "opp_played_dev_this_turn",
      "dev_deck_remaining",
      "own_bank_pressure",
      "opp_bank_pressure",
      "own_port_fit",
      "opp_port_fit",
      "own_can_win_now",
      "opp_can_win_now",
      "phase_SETUP_SETTLEMENT",
      "phase_SETUP_ROAD",
      "phase_ROLL",
      "phase_DISCARD",
      "phase_MOVE_ROBBER",
      "phase_STEAL",
      "phase_MAIN",
      "phase_GAME_OVER",
      "own_lumber",
      "own_brick",
      "own_wool",
      "own_grain",
      "own_ore",
      "opp_lumber",
      "opp_brick",
      "opp_wool",
      "opp_grain",
      "opp_ore"
    ],
    "hidden_bias": [
      0.021885518028383656,
      -0.019391813760553163,
      -0.005309400563855723,
      0.030053545507728274,
      0.030846217863675075,
      -0.0069026508916559025,
      -0.0018307578897930016,
      0.017081969930158085,
      -0.006644179350605114,
      0.03308670063642896,
      0.0006088644223695274,
      0.018337155208368715,
      -0.013551590903056313,
      0.03523426199016009,
      0.024183123310768218,
      -0.0362929532305117,
      -0.008381719864368274,
      0.02635543538952181,
      0.03861039321851533,
      0.013559029362038469,
      -0.011162665753904294,
      -0.004781507311871363,
      0.004961933275597071,
      0.025135214354685093,
      -0.01940263519390373,
      -0.02726758700448535,
      0.02631616734674101,
      -0.021851481524922254,
      -0.015575622141166591,
      -0.005335754030004639,
      -0.021547095040988878,
      0.029548682481895985
    ],
    "hidden_size": 32,
    "hidden_weights": [
      [
        0.11961449353347954,
        0.1008758633340622,
        -0.08111096792333698,
        -0.07948990558590197,
        0.08268512299445734,
        0.057626173483096545,
        0.04665400604481547,
        -0.035742108903034565,
        0.02745724822695522,
        0.03674612257449383,
        0.02969203485110327,
        -0.07012375130361403,
        0.0036829040252003703,
        -0.011139523919514815,
        0.04708006355862256,
        0.11869053340157909,
        0.11175100579869321,
        0.018703811532928643,
        0.006973293936060687,
        -0.03946605390715287,
        -0.09023298658558287,
        -0.08616151680696843,
        -0.004891945504904756,
        -0.03338157973923977,
        -0.021232086976393217,
        0.08521097415710216,
        0.00627641213714894,
        0.012968115977176927,
        -0.05813490429894567,
        -0.08088787382825119,
        -0.03741359516639922,
        -0.06542170253323802,
        0.022393956576919692,
        0.12545492571748454,
        0.03912276797739559,
        -0.06844215733113428,
        0.08687778491913274,
        0.06500695633722411,
        0.05611050538304391,
        0.0907087647809078,
        0.06409023375682814,
        0.0682176470945759,
        -0.02035003813934346,
        0.113619478574305,
        0.11932311650170992,
        -0.06461355237374632,
        0.06272758440528153,
        0.0548282085716808,
        0.011336999652999218,
        0.004791040556527544,
        0.004186247997652625,
        0.09456586907992114,
        0.000997723198510824,
        0.07680359596634116,
        -0.017400640766091525,
        0.09251589041347888,
        0.09208375593081473,
        0.005136040764161981,
        0.014856955875509762,
        0.09531662535172987,
        0.051251763298321706,
        -0.0028699517026665364,
        -0.044433337720727745,
        -0.037406043725687815,
        0.04282432853251675,
        -0.06816544477068041,
        0.086942690956246,
        -0.049471858845528696,
        0.08816333922781677,
        -0.04003245940610019,
        0.09671132126055784,
        0.04419244517432862,
        0.0009105738334850178,
        -0.0005675723487588454,
        0.0324499714281327,
        0.045625920040658345,
        -0.04032407970460042,
        -0.06000835925549043,
        0.004524309606240266,
        0.09602311146954798,
        0.027819362991177377,
        -0.08652690097784123,
        0.07049770316441298,
        0.050787854717904514,
        0.09050532506574843,
        -0.06162583183134495,
        0.05249355368760893
      ],
      [
        -0.11394978226127145,
        0.030561635973965422,
        -0.05782264263619197,
        -0.06528176877345235,
        0.07635538158447228,
        -0.09258793698919922,
        0.0029135466070136784,
        0.0730855581772068,
        -0.05967305159283506,
        -0.06863901621517747,
        0.06947398964686514,
        -0.039533634101080344,
        0.052931641868573846,
        -0.09109695083052366,
        -0.04328428009684728,
        -0.08034774028896059,
        0.03243840132876818,
        -0.09874757151944297,
        0.10104583271139213,
        -0.13033927160737838,
        0.03745669989130333,
        -0.10308705920697994,
        -0.056639431787600246,
        0.06885412666805976,
        -0.06963263893754829,
        -0.07256391134861416,
        0.040350634627845126,
        -0.024524641684357827,
        -0.12403348873643903,
        0.11987211231631822,
        -0.08950067917507647,
        -0.08927770462813225,
        -0.0455654308313789,
        0.01014768812114856,
        0.05338137628998674,
        -0.08471521905704225,
        -0.034615075570445734,
        -0.10272136260187445,
        -0.011872654915217763,
        0.05213633644104878,
        0.04566491864969851,
        0.07905878712961632,
        0.05081141075359278,
        0.05928155672248272,
        0.05774444858161783,
        -0.010718947305709683,
        -0.060789594307897814,
        0.025383573217683548,
        -0.041262734046536534,
        -0.11072490464627388,
        -0.010502371320294385,
        0.0748954674979585,
        -0.08672302123645574,
        0.019845384247540607,
        -0.029444885285463726,
        -0.01034472431298818,
        -0.08697742969571455,
        0.10143896075157763,
        -0.05742225624631441,
        0.025242778356889,
        -0.019681174110853985,
        -0.10329141994042074,
        -0.004967131000805501,
        -0.07702858291763137,
        -0.09513135019241631,
        -0.09712368996693928,
        -0.07616955749371221,
        -0.0863567179211929,
        0.028948386386463697,
        0.0012600468794189074,
        0.10280497895419857,
        0.09303947665431257,
        0.10598285103176433,
        -0.051558544569930975,
        -0.011852016806291051,
        -0.07725497793368412,
        0.019553287378306416,
        0.026762504666561014,
        0.0634452754881862,
        0.04155612389375662,
        -0.05691183527246196,
        -0.014587982352856098,
        0.004177778106792072,
        -0.10814837825097284,
        -0.1031267207107324,
        -0.019553828524449743,
        -0.08876592328727008
      ],
      [
        0.042647597626508285,
        -0.05675765629726169,
        -0.0899770780220998,
        -0.07078324846666055,
        -0.06014727929874048,
        -0.06262077509796572,
        0.002000477264540829,
        -0.008742217290134543,
        -0.042169385535114234,
        0.02690006671174417,
        -0.0650970620613081,
        0.08554254487238253,
        0.09543614444140575,
        0.04668000863000658,
        -0.014629683362043013,
        -0.0010979098073800814,
        0.013658751419889044,
        -0.09792213553180658,
        -0.021290252292161443,
        0.00244537288786434,
        -0.0711159108737991,
        -0.09051642500576097,
        0.06390654516649194,
        -0.029872529787349746,
        0.003340329165937117,
        0.09007784128006648,
        0.023536917044794062,
        -0.045095434305910294,
        0.10274003137265685,
        -0.031666852155916046,
        -0.10403118909860046,
        0.03692175685084707,
        -0.09065745162181618,
        -0.04658467608950987,
        0.07253125811955119,
        0.03720867744054826,
        -0.10442929433730262,
        -0.01087898492529683,
        -0.020753511845639994,
        -0.004222265816106924,
        -0.06456961657456574,
        0.017315112837969222,
        -0.09420208127557887,
        -0.04903939277925762,
        -0.031394823985338924,
        0.09134046203400499,
        -0.09219905672138876,
        0.05223744743345522,
        -0.07076444179121469,
        0.014472050766980282,
        -0.024799089366697728,
        -0.009052552212823382,
        0.05388933276681996,
        -0.02374635759358257,
        -0.08468370261861234,
        -0.08444757185740126,
        -0.0919682377565982,
        0.0721246308746087,
        0.02990196698379494,
        0.09734270414903992,
        0.03989562548441473,
        -0.10186933905577014,
        0.030379689735221135,
        0.05940555162755365,
        0.04786255326988705,
        -0.0013902661950991881,
        -0.030103195136678296,
        -0.00912227956328451,
        0.06401982338868518,
        -0.048992454847758334,
        0.006554335098206878,
        -0.0048092666488065644,
        0.09744713708234147,
        0.066068515610929,
        0.09259446601621588,
        0.06441543447606345,
        -0.043556050031435804,
        -0.05810600960560225,
        -0.002907877665604566,
        -0.05241821958432872,
        -0.015776032109689087,
        0.03783148843751624,
        0.089195943535656,
        0.017679612762589354,
        0.06704879794530572,
        -0.08773045615079733,
        -0.030878100563333954
      ],
      [
        0.13671920247525762,
        -0.06911264583637136,
        0.0008742194488773912,
        -0.0790750964678174,
        -0.07473086734506156,
        0.09634066766851336,
        0.11700913688959629,
        0.038219219857298016,
        -0.07274223105265207,
        -0.027071929044161374,
        -0.03993338593991653,
        0.05001689718627131,
        0.05548790279595447,
        -0.004101921355644621,
        0.011178957898230299,
        -0.06414119224611035,
        0.028212389465579128,
        0.10747615011428589,
        0.07143503989841779,
        -0.06550757623483473,
        0.01948547466644395,
        0.06339056136848806,
        -0.0470844140126854,
        0.09035064141419896,
        -0.004076979332928004,
        0.04735126928562408,
        -0.01957097609591068,
        0.10611311098195045,
        0.07135549982746786,
        0.032020012371706146,
        -0.06960913602232235,
        -0.002561195441553754,
        -0.07383382408533816,
        0.04697957043819547,
        0.0832242819984824,
        -0.06781678261908511,
        0.004970390571902334,
        -0.001161729803630655,
        -0.013206946636690711,
        0.05124179934596646,
        0.10416646801202896,
        0.05374002107277439,
        0.008059729351180068,
        0.11869782376352211,
        -0.020618508195748717,
        0.06352374372684541,
        0.044634833104807654,
        0.06953925459949595,
        0.0970929317412154,
        -0.0493292575586846,
        0.03296144117769477,
        -0.014353302051995946,
        0.03984624498592931,
        0.10744471889021717,
        0.045870266920386434,
        -0.08827173066329663,
        0.005070263587493236,
        0.05957493459300644,
        0.08533602721415261,
        0.036724778132201236,
        0.07048570383861412,
        -0.10348340579784422,
        0.11601263141066542,
        0.04933213166749238,
        0.022923246780136016,
        0.08956557703626092,
        0.08377770285306127,
        -0.08550564587389374,
        0.06764151573623364,
        0.056855543275586534,
        -0.06564700248132786,
        0.05234486150071091,
        0.018479603673137678,
        -0.06808064922692386,
        0.06519153578578468,
        -0.04397817064398894,
        0.024072354343434882,
        -0.01136839677108567,
        -0.05071106992448718,
        0.01851282767906273,
        -0.003415086921649696,
        -0.05976757663339053,
        0.10300381421136764,
        -0.0887373251148382,
        -0.10180827636293958,
        0.0010392764362951996,
        0.07480460691423135
      ],
      [
        0.06478590233339429,
        0.06111541939715792,
        0.016496947827181006,
        0.05023175464780535,
        -0.020607943227376316,
        -0.04051400772822493,
        0.014776196234752216,
        -0.09407508249742133,
        -0.08356273174747272,
        0.07179436746865045,
        -0.052783840302451125,
        0.057787492853537646,
        0.08671868255880306,
        -0.0043396234866751515,
        0.03640722006777883,
        0.07852356632605871,
        0.09885291603744582,
        -0.06433884322371422,
        -0.04563159459555047,
        -0.010651741964726536,
        0.004477411932550618,
        -0.023418628125929188,
        -0.10180771731387972,
        0.019701337646159004,
        0.10653559637342734,
        -0.027192151123114315,
        0.00908397233201871,
        -0.02521831197351186,
        -0.015156185019397759,
        0.10855129823157213,
        -0.04231747914708875,
        0.0489060150294707,
        0.024549250777498585,
        0.033790365678993656,
        0.09127869166141393,
        -0.09090888752532529,
        0.07303229753992868,
        -0.04024719364801941,
        0.03970322582345994,
        0.06876327146343496,
        0.04351184318998016,
        -0.01458260154940521,
        0.08834969612708939,
        -0.07312578179366137,
        0.05672618172422261,
        -0.012305990502550867,
        0.018282150289596476,
        0.08717980165241596,
        0.09070525892312789,
        0.02475509894151466,
        -0.032341682020004904,
        -0.05293551693759563,
        -0.007996974411933859,
        -0.04947983725633011,
        -0.028712751783742413,
        0.11232567787227636,
        -0.07521487024976997,
        0.08649402946691773,
        -0.025517424411585644,
        -0.02183325484695569,
        -0.03645167361907152,
        -0.09057148148536648,
        0.01288439251913058,
        -0.07130149627440734,
        -0.012369570507432473,
        -0.03988363107845265,
        0.08420842801056756,
        0.0904056208720734,
        -0.012430868000222136,
        0.029136517459567815,
        0.09183219588292683,
        -0.03724177112704118,
        -0.08582042875763629,
        -0.05313723147596383,
        -0.06653407405619169,
        0.06707160506266817,
        -0.027048716413874862,
        -0.027605058791504558,
        0.06595997545187482,
        -0.05244607380376962,
        0.06808858502255112,
        0.033781633268708304,
        -0.019204169709170042,
        0.07271179620914621,
        -0.028824106000008398,
        0.0871386949411185,
        0.09096883562537772
      ],
      [
        -0.006342278605005196,
        0.03874144461940477,
        0.09273304406064539,
        0.04785521794543119,
        0.05017646962891705,
        0.07507112602716025,
        0.09093747945597229,
        0.05163612316628041,
        0.10067848474658384,
        -0.04935696088547268,
        0.02159466801284556,
        0.028846372957728808,
        -0.02853858111464464,
        -0.02156470942424402,
        -0.07491477359819439,
        0.09223239496827625,
        -0.036158382454247726,
        -0.006047474030092553,
        0.08517272259826916,
        -0.07499843781455376,
        0.09277297784002783,
        -0.08326749057322223,
        -0.1035099164242306,
        -0.03291107777219923,
        -0.03057566759096077,
        0.08669038737110117,
        0.0821824379206041,
        0.05605573168190807,
        -0.02256807483311762,
        0.011264429022140036,
        -0.06232474337694195,
        0.07246265177716174,
        -0.03005696788938626,
        -0.053218365187353685,
        0.029672892835818438,
        -0.07591937127904792,
        -0.039677449374442814,
        0.0902470934160622,
        -0.0876829594652533,
        -0.07868949450483319,
        -0.06611196299611548,
        -0.05681390337197951,
        -0.019914686089515212,
        -0.0614966719698573,
        -0.03172100056712446,
        -0.056975995518230696,
        -0.05826479419275986,
        0.019356822525216942,
        -0.0380224038904226,
        -0.03567980851113975,
        0.05659863167360136,
        -0.09665559892935562,
        -0.07847709406429769,
        0.07518254347298416,
        -0.017515311948700756,
        0.055472738648388586,
        -0.0843521863084162,
        0.002425999192500896,
        0.07176959236496945,
        -0.03458263485574751,
        0.05643629872487481,
        0.02365495124341353,
        -0.02655771465809097,
        0.106334462201001,
        -0.02310119024926645,
        -0.00529160909435552,
        0.02357607943984061,
        -0.03942232668755276,
        0.07236019355169025,
        0.020643619682105055,
        0.019272357397863954,
        0.008269540542817425,
        0.1039272465910864,
        0.1063614257871336,
        0.07303578709183198,
        -0.018366592104709777,
        -0.01890453755088895,
        0.004217353638107719,
        -0.09787974398153534,
        -0.08520951054074953,
        0.10305914232182434,
        -0.08038716998187158,
        0.09273437760628789,
        0.03791604016825337,
        0.08793465612577533,
        -0.09083500603576519,
        -0.04371515856188543
      ],
      [
        0.06201869125791006,
        -0.10509455478793434,
        -0.08503549417251059,
        -0.03250378895457338,
        -0.06908384276819726,
        -0.07723037382673162,
        0.03797705638160547,
        -0.08663462145087009,
        0.10054223083321173,
        0.030731389671201054,
        -0.09755086237794382,
        0.07845816233811644,
        -0.04897360607160385,
        0.0017004340167452788,
        0.007427324645305706,
        -0.07847644055235585,
        0.00202366520860542,
        -0.09503097548102007,
        -0.05921628907743173,
        0.08220164729689254,
        0.06646265659978716,
        0.00801575893433554,
        0.03777928576495549,
        0.08230431715544861,
        -0.07504413020787261,
        -0.003107011785780134,
        -0.07881618011422904,
        -0.08218438452874742,
        -0.09434917439987858,
        -0.05202228824814213,
        -0.10219649717374124,
        -0.054202389392399186,
        -0.026012818675608763,
        0.024691600991040105,
        0.07798964047762204,
        0.08616780500439679,
        0.04718141599370038,
        0.0008819330629504232,
        0.09050138628094762,
        -0.07362405469774821,
        -0.0848408685103789,
        0.06692742252977903,
        0.028442497654257503,
        -0.06652411771217125,
        -0.0171707162915144,
        -0.043754430954416,
        -0.013290323036380504,
        -0.01685342137911758,
        -0.018368694686269903,
        0.053901946763722924,
        0.06813511369891481,
        0.011793922000752896,
        -0.008007106170429995,
        -0.04443217188355509,
        0.05632087407696335,
        0.10083652160734705,
        -0.06087870419779961,
        0.0475745472729296,
        0.040617516021364035,
        0.03589927152507488,
        -0.10187404875143323,
        0.01108525179740057,
        -0.06626923980215535,
        -0.06535742143295073,
        0.017063655205820722,
        0.03324910258640726,
        0.025999852641836626,
        0.05195845510965064,
        0.04342902546374938,
        -0.006671022996096491,
        -0.09584803570847296,
        0.0583406622659844,
        0.06924041406265112,
        0.07649010822394865,
        0.021023555285977144,
        -0.10512076652348992,
        -0.0651756583157938,
        -0.0837388881025255,
        0.028692368885167657,
        0.009877584318776955,
        -0.06752305327675683,
        0.09990699911446983,
        0.10190354948100443,
        0.086003301056269,
        -0.0075784918482247,
        -0.0439221447067292,
        -0.0644232848393193
      ],
      [
        0.08653983905623687,
        0.04605046019465661,
        -0.03736710369129358,
        0.0930456357233225,
        0.021102835176987248,
        -0.012423261402905521,
        -0.012825294742943149,
        0.04962715730912133,
        -0.005995017410967719,
        0.041939015680248444,
        -0.07159811933045084,
        0.053546886979381626,
        -0.04298813373153572,
        0.0896281964119775,
        -0.05629464953088953,
        -0.026509407122073714,
        0.016766593382550214,
        -0.015215414334210897,
        0.012345015703788542,
        0.10624813804353243,
        -0.055664865320204246,
        0.0652270335965681,
        0.04418456876352944,
        0.06309916058933794,
        -0.010148615801441883,
        -0.0074193149654268355,
        -0.03254293450604828,
        -0.00573445322248515,
        -0.04346066668616857,
        -0.061995215094383695,
        0.0008144021536011433,
        -0.06475524464229178,
        0.00748252672556573,
        0.02961615400136427,
        -0.040875170453654686,
        -0.07019712843433402,
        0.02351833655802604,
        0.07868534858760899,
        -0.0570227434997774,
        0.02886627854435629,
        0.03954310637599902,
        0.08815495944146502,
        0.04549505054155923,
        -0.029410499368085024,
        -0.05870345242846203,
        0.07763765732224698,
        -0.03895137453152686,
        -0.09706098717088132,
        0.08865824288021273,
        -0.055806024545669894,
        -0.03755905122961201,
        -0.03506722398287473,
        -0.04915192764008464,
        0.049999991745846094,
        -0.023789459489532865,
        -0.0017645692613350039,
        -0.010669997514128886,
        0.07628639558878289,
        -0.10088155723394028,
        0.018489057895500965,
        -0.077327314586017,
        -0.07489537977292272,
        0.03616642117858906,
        -0.02673610835592034,
        -0.09318088367965079,
        0.018831614617058602,
        0.08966410778558342,
        0.030812531560960723,
        -0.0009585274009144715,
        0.06421807487466202,
        0.0890579643000646,
        -0.07473685207134842,
        -0.04300930891148226,
        0.0974439484051174,
        0.09128896498256053,
        -0.04411164766109247,
        0.04364306230303958,
        0.0813867014187591,
        0.021142537853012826,
        0.044892733009730616,
        0.0065630605416917955,
        -0.05662697246313599,
        -0.06016439367998535,
        -0.09256444552286389,
        0.037826730966867936,
        -0.07535023012984766,
        0.02781885118493055
      ],
      [
        -0.029951199694251227,
        -0.016698317457805114,
        0.0953484730215253,
        -0.02710069890941221,
        -0.012555903088448584,
        -0.025887004397855514,
        -0.06961892822135375,
        -0.0632351635885559,
        0.005992635941052145,
        0.05953368434925986,
        -0.09056894995914275,
        0.11148873137790524,
        0.013457096504510421,
        -0.11522559695154899,
        0.05709397352111415,
        -0.025385183918936058,
        -0.008310110822873567,
        -0.08787624480589719,
        -0.02041879899975551,
        0.01723259684579001,
        0.06109362716678246,
        0.0026877846259015393,
        0.04501329986062058,
        0.043310170447968976,
        -0.0673979128346916,
        -0.09894328835425033,
        -0.004870550686729072,
        -0.07943985434399917,
        -0.05297078919511696,
        -0.0715470238220642,
        0.02158463996341602,
        0.002890355604866184,
        0.021576119857499028,
        0.08853806239698521,
        -0.08861055605416243,
        0.01441631397150759,
        -0.09131140749764673,
        0.03685425681015487,
        -0.018341679849273932,
        -0.07626577412217969,
        -0.04399274325600956,
        0.03398384609906643,
        -0.013611377624026293,
        0.10001380703706478,
        -0.06273408647304408,
        -0.0380496221786118,
        0.08360663321958044,
        0.021986116365013915,
        -0.10175535497167311,
        0.08388197464143712,
        -0.03605965372584959,
        0.09694303858965142,
        0.033992025052809356,
        0.05824511458519134,
        0.07721164973220905,
        0.0034191011410543305,
        0.10253704106244055,
        -0.11759331916234746,
        -0.029701254097808858,
        0.0651640302265775,
        -0.10560915583481602,
        0.03696097625047205,
        0.10523083913232056,
        0.04576039152460734,
        0.07766729804451103,
        -0.09725740663733454,
        0.012548611656855857,
        0.022951502857482983,
        -0.013813859845416906,
        -0.018218188113792836,
        0.06290619537606161,
        -0.07230992425390385,
        -0.09751543533168652,
        0.020922359453215123,
        0.09997033134316113,
        0.06280660227738845,
        0.03711059376692332,
        -0.046427647440882645,
        0.08554217454706324,
        -0.09953165931018325,
        -0.05311087848195225,
        0.05484493642581784,
        0.08400761489292059,
        -0.022014929162181906,
        0.0870748387080172,
        -0.08779238145320815,
        0.025076550950558146
      ],
      [
        -0.0595904401161701,
        -0.050346296243300635,
        -0.045583403615980754,
        -0.09234695828352167,
        -0.004540365004862787,
        0.00989160301944958,
        -0.031787743947586614,
        0.03888964746123905,
        -0.08912539852219042,
        0.019557657798591407,
        0.024057668005122518,
        -0.01670326154732223,
        0.11712224403811092,
        -0.06240137146371494,
        -0.017556027834574165,
        0.009018414090883258,
        -0.005276055775395119,
        0.116964133965847,
        0.044423766771068025,
        0.018978137695981234,
        -0.0006034910716454532,
        0.008482519055032008,
        0.09983412696973352,
        0.07214649683860459,
        0.03836423366445629,
        -0.07107204492909755,
        0.021592701503786334,
        -0.07975927931148621,
        -0.036704079324108886,
        -0.07038051429256711,
        0.04199834689441661,
        0.121049858084852,
        0.05919217449226157,
        0.04160895896711659,
        -0.05082143409755542,
        -0.012586130019454755,
        -0.00399705608907362,
        -0.014876984045764362,
        -0.04085079542496698,
        -0.054579564870857765,
        0.06526663756130156,
        0.10607337748648725,
        0.08541466147580797,
        0.04023683814868657,
        -0.07074907380729822,
        -0.031157827296051974,
        0.08515727917030597,
        0.11380000154316672,
        0.039140703376121716,
        0.010725210125870768,
        0.04900952963325308,
        -0.05012510098116069,
        0.046388675708898736,
        -0.02024565656669684,
        0.09441627645991606,
        0.006867055340838141,
        0.042885620152995234,
        0.031587743130788465,
        0.007556563192208569,
        -0.0005843742771731399,
        0.09893185291996365,
        0.05460725750316936,
        0.006583615816125984,
        0.00117587257218243,
        0.08534508885284889,
        0.05809597718894702,
        0.03236615067018494,
        0.09822219828365995,
        -0.0820455179710243,
        0.020218802009390684,
        0.02700205726096981,
        -0.009725417188485574,
        0.09926889932227577,
        0.10474521120125659,
        -0.02345379825615028,
        0.05384611281605772,
        0.056947774414883745,
        0.044819538123709084,
        -0.027137842160109144,
        0.06851778298212842,
        -0.031417532860235596,
        -0.07035735348035825,
        0.037190317723023204,
        0.03571923208182523,
        -0.014228162216840286,
        0.006252851741525589,
        0.10401865930232901
      ],
      [
        0.0666308731903615,
        -0.020499675482525823,
        0.08685853991898687,
        0.015540698304677818,
        -0.022546527480345517,
        0.034333900320561946,
        0.05682047734557748,
        0.08400580939268827,
        0.037335715462510174,
        0.033849677472315313,
        -0.019781536517627978,
        -0.08222826379518362,
        -0.025723572148553468,
        -0.09636682351785605,
        0.10693030640752878,
        -0.0276891560619084,
        0.018353005230226357,
        0.04878819623397044,
        -0.08456173405741388,
        0.0857924895028273,
        -0.03228756370423088,
        -0.09723372324369058,
        0.02394452569827824,
        -0.024880983757343142,
        0.0844604261644582,
        -0.008148636738787613,
        -0.08674591110672136,
        -0.10320420435828787,
        -0.07816397303915543,
        -0.024943960319751268,
        0.05898394849645885,
        -0.11081082964403861,
        -0.038602092110156666,
        -0.0038336389475592514,
        0.0830641480211498,
        0.10279316152304617,
        0.07889418317824935,
        0.03081990901287642,
        0.013714801777270042,
        -0.057897026994413806,
        0.02387616289248797,
        -0.0695994319618727,
        -0.045400768791758736,
        0.07957119412263504,
        -0.007822657560990678,
        0.04800478995315325,
        -0.010109004867737635,
        -0.04473768061678877,
        -0.008672410311690413,
        0.03689810646389296,
        -0.0590837999249595,
        0.07666967086090964,
        0.1081624910057103,
        -0.07306887569434109,
        -0.05901750547330049,
        0.07003505548236781,
        0.053772067436458675,
        -0.0677210288112095,
        0.02297642083370703,
        -0.060942841087186526,
        0.0785791654449372,
        0.018739784103757963,
        0.0041588173418219505,
        -0.07255077573056776,
        -0.020123638672558796,
        -0.01003462384406495,
        -0.025814009114864783,
        -0.06867868713385858,
        -0.06468657863683792,
        0.04269559551486553,
        0.09163591742004915,
        0.07371393339475937,
        0.02468927726828619,
        0.05947683215910359,
        -0.07852454022463448,
        -0.059007763976056296,
        0.04366253515451751,
        -0.10821493441824617,
        -0.08978967817397557,
        0.060288515873394344,
        -0.06220479734784432,
        -0.07113292608779215,
        -0.021880271579439243,
        0.07186161362704527,
        -0.10461431286838348,
        0.07807161649461772,
        -0.03741862876924351
      ],
      [
        0.033554656447749874,
        -0.0013517673982408412,
        -0.06931291466146934,
        0.10697476063776226,
        -0.059688454894006884,
        0.07190950763634783,
        0.09035947684411183,
        -0.004886320667527082,
        0.10273431868934448,
        -0.08244098868841382,
        -0.06485292761057593,
        0.0001873477019152078,
        -0.07574136472713418,
        0.07593275754754783,
        0.006180209152091009,
        0.07579827502050666,
        -0.03192716310712994,
        -0.09473524642758106,
        0.09831427353283742,
        -0.05412862594567593,
        -0.009009388150050996,
        -0.06683033579186332,
        0.021030154453600385,
        -0.002764154189118261,
        -0.06020404509056529,
        -0.09718383480925141,
        -0.0343244519866405,
        0.06076302521499306,
        -0.07395774565758749,
        -0.041030078914261324,
        0.025359661540269113,
        0.03990470797044918,
        0.08284600912316238,
        0.04762900222795956,
        0.07677826952575384,
        -0.07365875115038704,
        0.09269475176164112,
        -0.09970759218423174,
        -0.07606169214932705,
        -0.08131582065209156,
        0.06573490343479063,
        0.006617112077883295,
        0.1002341113990137,
        0.11152553321880271,
        0.11345274775733231,
        0.03150630221528771,
        -0.02373692716416626,
        0.10580401395018899,
        0.06632913448447503,
        -0.0654531007613874,
        0.01700536980831825,
        -0.09961542372976985,
        -0.10238477110158503,
        0.03434624999012281,
        0.05763259086000838,
        0.085475876489676,
        0.06071149577398093,
        -0.06576930147390227,
        0.05174874688050735,
        0.10744893730080435,
        0.03921515395385763,
        -0.004151603230814773,
        -0.031994268298367406,
        -0.09328311171597621,
        0.02689916912164195,
        0.1024877515425191,
        -0.08214608519465169,
        0.06892016845755936,
        0.08523940775964525,
        -0.03243433731314888,
        0.07363363812638954,
        -0.07377303645006093,
        -0.04272184590433282,
        0.01717289167528608,
        0.08133205815359612,
        0.024318361858761014,
        -0.08801616591365731,
        0.09434110586839087,
        0.01669837689785418,
        0.0629626691938247,
        -0.05571506756677294,
        -0.03187943673606637,
        -0.08605738624300169,
        -0.06524642710881405,
        -0.010408134393129589,
        -0.015911086824552657,
        0.033991221526984285
      ],
      [
        0.05794248085275115,
        -0.03783242776057845,
        0.08424042148396123,
        0.02709773950841382,
        -0.03765886962707752,
        -0.07376694478762715,
        0.09503046814332271,
        0.0310506833853008,
        -0.10127325269498642,
        0.033398035451751185,
        -0.034399813652998476,
        -0.03140464715403891,
        0.058860983877395495,
        -0.05527773386084981,
        -0.058715658080637084,
        0.000327409978754273,
        0.08126027200123148,
        -0.09394637573528318,
        0.07252842495570042,
        0.029654675556920522,
        -0.07808839249786484,
        0.03188307423094326,
        0.02249476618302981,
        0.044925091799662024,
        0.009210471490093833,
        -0.04360586785200969,
        0.00035572169029183767,
        -0.05620137402864698,
        -0.02598043865533023,
        -0.013437915907529777,
        -0.09447202344571419,
        -0.0529657567517148,
        -0.04327040467287789,
        -0.034058206011650105,
        0.014200293430450154,
        0.0515550883379825,
        -0.05186441662666019,
        0.010105240745511938,
        -0.03587202201337714,
        -0.06235706265653919,
        -0.08163530234088914,
        0.09315081042398661,
        0.08881000854928814,
        0.05815973232771762,
        -0.06411836237042755,
        -0.07883832698570256,
        -0.08724046455483994,
        -0.0496083699270928,
        -0.019314802304389932,
        -0.12153795395447783,
        -0.01726667409947445,
        0.036518147784130706,
        0.06719213301360114,
        -0.06601020947965916,
        -0.11175667522733428,
        0.054108474130678465,
        -0.03383580950741603,
        -0.04066035381783963,
        -0.07781057760830845,
        -0.04870316371460671,
        -0.05193616928999164,
        -0.05209640462893144,
        -0.06795276408321275,
        0.0036506318559308437,
        0.06703872971134785,
        -0.03966967932246994,
        -0.02054907974533355,
        -0.003369515132936011,
        0.07335611565857393,
        0.05679059180595837,
        0.10382740984624231,
        -0.07003794199765885,
        0.06546349095571587,
        -0.043465644957313934,
        0.01640546036252475,
        -0.007771477221854105,
        0.016016171180435555,
        -0.03884933116775863,
        -0.092702138418079,
        -0.10755649314272131,
        0.0882061996078465,
        0.08359708488497446,
        -0.009818161807655141,
        -0.08912389079765978,
        0.07030682125843606,
        3.891677852278564e-05,
        -0.009741404247523504
      ],
      [
        0.06500607297033378,
        -0.06611422726820976,
        -0.03896896133764385,
        0.08294976351347348,
        0.06557674352787382,
        0.11708674327946328,
        -0.00114326335625674,
        0.10868537088235077,
        0.09131295852637632,
        0.02131976023844203,
        0.10449323790186194,
        -0.05471199199814185,
        -0.07515110154178128,
        0.07543484408290187,
        -0.06871055446657379,
        0.02449245037543681,
        0.07182318674454843,
        0.05246524965058347,
        -0.042366243296722055,
        0.0886054265182866,
        -0.0797606355102619,
        0.03139763259110353,
        0.09126265022243758,
        0.01562425569118636,
        -0.03867726331989129,
        0.11133711249652842,
        0.0495760665322568,
        0.062474040214973825,
        0.09943300433280093,
        0.10825997944300844,
        0.025439692783846717,
        0.07814536771835977,
        0.030945808060868878,
        -0.022396562343829717,
        -0.046235344725412963,
        -0.05014993089873682,
        -0.09884939482864755,
        0.028708752692812024,
        -0.014482415264001004,
        0.0957539857265884,
        -0.08369941615498924,
        0.07249371066793639,
        -0.049926568900330114,
        -0.014372013611521404,
        -0.0300761987305615,
        0.10988331262018544,
        0.04207499461700843,
        0.008484334107530227,
        -0.04439517465491923,
        -0.08277832307626731,
        -0.021334597616219496,
        0.10910798813150988,
        -0.006546227089320299,
        0.04292553465877631,
        0.10071282448866295,
        -0.07723787872424286,
        -0.023751417819785743,
        -0.003120866041578314,
        -0.05449854889626669,
        -0.020723517656302586,
        0.0429744684967534,
        -0.07829413620091531,
        0.06717216573970408,
        -0.04338590039741166,
        0.033837570468237536,
        -0.06739702237753589,
        0.06380138781789303,
        -0.01734230619190203,
        0.07123342280659518,
        0.09938615961773947,
        0.017465527398906278,
        -0.10260135303057,
        -0.028693525017901938,
        0.1015615054888758,
        0.03259165747210281,
        0.09183042818479414,
        -0.005101526874340113,
        0.0974791550014022,
        0.09009333012641439,
        0.029230842986574596,
        0.02389320722475954,
        -0.0817732684855186,
        -0.10245477426783692,
        -0.05969722324933125,
        0.052637434106378236,
        0.07903332413986928,
        0.06113075805645899
      ],
      [
        0.10711253503579517,
        -0.09662819012683345,
        -0.08717372847060523,
        -0.04284151060013136,
        -0.0949876792364687,
        0.02817908633990528,
        0.09834795037687036,
        0.08834093074757056,
        -0.07888832091391346,
        0.045617378855301566,
        0.05081819299504008,
        0.05321488173693814,
        -0.015638901318579316,
        -0.058507336698087845,
        0.09376558396527443,
        0.10016951908552493,
        0.05696402307116438,
        0.019884668622028485,
        -0.09540142676783248,
        -0.021672453063426335,
        -0.04235134764345469,
        -0.047990297879338076,
        -0.056393128766605,
        0.037209300499718156,
        0.03792729216503547,
        -0.0650033616841164,
        0.08707946285953676,
        -0.10703692652748656,
        0.11820756873049235,
        0.015459421896475494,
        0.043088361711808555,
        -0.049790307711608285,
        0.05992170269439787,
        0.10064076050933589,
        -0.06388415458772005,
        -0.07723361303485554,
        0.0626800870474903,
        -0.05149164041331334,
        -0.08129173283393104,
        0.004391133035589999,
        -0.05920675142979789,
        -0.05309191820772554,
        -0.0381498010995922,
        -0.06945821777526846,
        0.0662782117937415,
        0.021526300601845818,
        0.03838313932130687,
        -0.033378024292684993,
        0.06917019901127162,
        0.1183774276030765,
        0.10953778817043301,
        -0.09244605933944319,
        -0.03474169358673655,
        -0.08669608384835446,
        0.006511308334685586,
        0.04922887000285696,
        0.034525961064386254,
        -0.02740993120378602,
        0.10424071207810784,
        0.02686743046466173,
        0.10867942508937072,
        -0.015953679804128353,
        0.050420309308333335,
        -0.0860956543797253,
        0.007783258581970276,
        0.029918688939128198,
        -0.053955495283788145,
        0.026522489921650034,
        -0.07881160392596069,
        -0.008869829280067715,
        0.023114257522691892,
        -0.004327087201688539,
        -0.07470890284004031,
        -0.06815439841744815,
        -0.02679597570370511,
        0.05896690942531683,
        -0.014362263235873285,
        -0.06338795743686605,
        -0.03334618276569552,
        -0.03792652140928656,
        -0.07496049484667745,
        0.0182808731888304,
        -0.0041025069433465785,
        -0.03567319670895454,
        -0.10310896643180183,
        0.09039616456465807,
        -0.09295799374847147
      ],
      [
        -0.11876736258197335,
        -0.05207669392857198,
        0.03913507149803137,
        0.0780530485841184,
        0.037910460767241534,
        -0.07461010889375448,
        0.05601398039283295,
        -0.1084984623260265,
        -0.09067681178351548,
        -0.10437028400829987,
        -0.00663378789247776,
        0.013829410660384123,
        -0.002743811541877205,
        0.07752102155462691,
        0.05476168255638921,
        0.03184659015255815,
        -0.09492672399932187,
        0.07207809048939544,
        0.05973099311210225,
        0.05257609524878628,
        -0.10466736527570276,
        0.02161624922846243,
        -3.5753920904453044e-05,
        -0.0009435597460574465,
        -0.05706108384573661,
        0.05634986974376509,
        0.06456704101817476,
        0.05779242529252137,
        -0.0405892347346793,
        0.01749231111765945,
        -0.0884250188699497,
        0.018593615325756267,
        -0.1339697825711058,
        -0.1363352200916195,
        -0.08744669207011453,
        0.03293730809012121,
        0.09964293016391201,
        -0.00910145820333272,
        0.022374358778877442,
        0.011636020188222736,
        0.059879131991544036,
        0.09000463492978883,
        0.04961328793876909,
        -0.0541279653802458,
        -0.12325336324306774,
        0.07171149698822692,
        -0.06077617893726697,
        0.04128518021697687,
        0.046874995355642046,
        -0.06978984602454535,
        -0.07566984740315753,
        -0.021967775733851762,
        0.07193420331673125,
        0.06626690699709635,
        0.08262521749190366,
        -0.0664424462003946,
        0.016193183272995522,
        0.05832689369817176,
        -0.027431359541741727,
        0.01057841830555422,
        -0.06263247088066186,
        0.07644217129413591,
        -0.037761441803036117,
        -0.003135374345670201,
        0.03334715292209005,
        -0.043896208970083866,
        0.0674032788408117,
        -0.00888287635349349,
        -0.015099466483745012,
        0.049704710300710345,
        0.03512317169534122,
        0.04493535421860679,
        0.0803545738638024,
        0.06353577015188651,
        -0.01980840386439975,
        -0.0034709171873573445,
        0.07795373807487482,
        -0.0990485159415592,
        0.031183142453159843,
        0.0008724417365974321,
        -0.023257993484298144,
        -0.08811138897853595,
        -0.04801470965986328,
        0.049676775550853175,
        0.0769802664818687,
        0.09760388003455635,
        0.05418321833339826
      ],
      [
        0.0730952648710251,
        0.06743135333461307,
        -0.07788766408711234,
        0.03620498837701743,
        0.07379934631612779,
        0.05070822606709625,
        -0.052832726477195696,
        0.03959021825940063,
        -0.025875201993004075,
        -0.021204198571694498,
        0.04377905184325663,
        0.03676820188444627,
        -0.08671076549631274,
        0.024247257598096646,
        -0.09397021243956276,
        -0.06895888477751047,
        0.06205575346709028,
        0.08627482931446656,
        -0.060093619915267,
        0.05421519122850405,
        -0.0725037745123157,
        -0.00792519444220658,
        -0.03389083317903074,
        -0.09205019190496405,
        -0.016625873999422287,
        0.010312725454409151,
        0.07505665433471453,
        -0.08512340767815454,
        -0.044349059345897585,
        -0.11637553703160247,
        -0.06226318216101123,
        -0.05676161021636104,
        0.059572549959005544,
        0.08588400335837806,
        -0.06218522728528152,
        -0.003848155588577028,
        0.003843438424332547,
        -0.002591994244530566,
        0.09576123846327085,
        0.09461519348359572,
        -0.10249451995861344,
        -0.022720136883132073,
        0.0006694089855135262,
        0.027706539926507318,
        -0.003046077439325736,
        0.06534566699038168,
        -0.08996334028307232,
        -0.012263373239572335,
        0.06184320974161265,
        -0.06944169109421824,
        -0.07304788684511992,
        0.02341261579458993,
        -0.07629247823846307,
        0.007096427069045841,
        -0.08562508127110452,
        -0.07062154531758508,
        -0.038815436817863445,
        0.05364057764660014,
        0.023671857733575885,
        0.02073630508049098,
        0.026147786223514005,
        -0.02212762151939533,
        0.09720098488960276,
        0.020161122624353503,
        0.027536851792428013,
        -0.09490079893380599,
        -0.05374521527344512,
        0.01827210668602187,
        0.09769542808571752,
        0.044780734375570154,
        -0.09523054155177246,
        0.0659584462009845,
        -0.061658697369203215,
        0.01922763044513959,
        -0.06620278233233946,
        -0.10258635156490689,
        0.058438565187395757,
        -0.004357026115035574,
        0.021481069083813163,
        0.04205236298924083,
        0.01854914698086184,
        -0.020370825014022455,
        -0.03896161829679494,
        0.005148140739545573,
        -0.05604638713346392,
        -0.05292377695150894,
        0.06662566750256418
      ],
      [
        -0.007470949101491702,
        0.051843976705700505,
        0.05253932687028202,
        0.003984180207490188,
        0.06962111546094542,
        -0.023799465693236307,
        -0.10135868751937328,
        0.07944213886150346,
        0.06013953224345028,
        0.06324476837064717,
        0.10672490239801104,
        0.010042587634951614,
        -0.0206288747979961,
        0.015335897407124764,
        0.09847176857396163,
        -0.03045361600792791,
        0.06568182675963469,
        0.10785628735337109,
        -0.05603352427393987,
        -0.06827721993691148,
        -0.05445787373421181,
        0.035939777242358265,
        -0.05395503493970225,
        0.09570550023182335,
        -0.09025942440793598,
        0.09199289875632934,
        -0.030923531297115926,
        0.0900470688515342,
        -2.0250630260089694e-05,
        -0.09832158069928858,
        0.058135639339044205,
        -0.05319782307222745,
        0.113888218432399,
        0.09180134885869336,
        -0.053643206249983394,
        0.0006345961058226769,
        0.011136711804339653,
        0.0616886699880662,
        -0.04878986694454019,
        0.022659259223691136,
        0.012791079386348754,
        0.029882541833478448,
        0.0195823957903359,
        0.011507471233435238,
        -0.03841839466912455,
        -0.014692573036883715,
        0.11039946771528819,
        0.018420673472213628,
        -0.07811065821108944,
        0.010564287287313238,
        0.05786037082887501,
        0.04704242372664462,
        -0.08087762250629346,
        -0.01985546954008855,
        -0.00019287528815647433,
        0.09260363370090449,
        -0.03353230372094126,
        0.08973353337279731,
        0.07522024249577591,
        -0.10522848621140475,
        0.0027251665896726477,
        0.0070110318346557525,
        0.04904729466554597,
        0.0831313841574509,
        -0.06375576328290654,
        0.06758331168944864,
        -0.09986205389924004,
        0.07112804159267942,
        -0.051050075673689965,
        -0.10192257398925408,
        0.06698616642654201,
        0.10092857578792566,
        0.03379193354673777,
        0.06294497269995819,
        -0.02206294929573753,
        -0.03058435895333009,
        0.035262646824251676,
        0.06733843334674022,
        -0.047705900294615085,
        -0.022406444272418235,
        -0.04244294861705155,
        -0.052616885668974295,
        0.08099216622170141,
        -0.10339880878626692,
        -0.09800797463225898,
        -0.06732848541672343,
        0.06812292193547848
      ],
      [
        0.05361628859402726,
        0.06330246306605489,
        0.06572871127099383,
        0.10030523327468134,
        0.03591295213640031,
        -0.08796500606074381,
        -0.07007625416449728,
        -0.010527037843193697,
        -0.07319772746801244,
        -0.019380016439062515,
        -0.025895911131433236,
        0.12115408516876125,
        0.12006796963759511,
        0.04762284518518364,
        -0.00890560605799511,
        0.004636812836228963,
        -0.06820437256368145,
        0.005198385521267881,
        -0.0553747981304344,
        0.0349269146683327,
        0.08741981691050753,
        -0.00028457681046153397,
        0.05046118038753997,
        0.07416226502507951,
        0.09404260776593147,
        -0.010742569272180013,
        -0.055451174727152074,
        0.08350261934800852,
        0.013925273018797722,
        -0.0295322163804621,
        0.04791223968592628,
        0.08924429172568014,
        0.13755319133126045,
        0.007025867875691727,
        -0.048709382251408244,
        -0.052542137964602664,
        -0.03985246541808576,
        -0.057372391297520406,
        0.09783385179282693,
        0.03784144132752609,
        -0.0826578754514351,
        -0.07415617347395455,
        -0.04993930079880555,
        0.12537065028267172,
        -0.015711354425142127,
        0.07895697430786268,
        -0.04632156211891606,
        -0.0483346881176811,
        0.1213546414874551,
        -0.0774560534598588,
        0.008599188641210342,
        0.014192313674536005,
        -0.02946466690145564,
        0.061219290974793485,
        0.09731750052850362,
        -0.036692993957113416,
        -0.027150358318599157,
        0.014142434471918906,
        -7.978125607037369e-05,
        0.033617045696163875,
        0.062242012975781164,
        -0.03446650392780892,
        0.12202559456752946,
        -0.009186908899462885,
        -0.1009043463762838,
        -0.013475709243730085,
        0.00836961223258697,
        -0.06805371373131955,
        0.08135352217814912,
        0.019439766053639763,
        0.003893711079928904,
        -0.046188201740205874,
        -0.07865704984960169,
        -0.04450144440272868,
        0.030306313429349002,
        0.0758996964551174,
        0.039309277868964855,
        -0.09653668400379185,
        0.0627223097545357,
        0.04734738111294407,
        0.04386576430863748,
        0.008483841508757488,
        0.0791510664392356,
        0.10282678887429937,
        0.023844501143774816,
        -0.009325223500739728,
        0.012103076720295583
      ],
      [
        0.07808951904949842,
        0.040885004566221496,
        0.067762614063131,
        -0.03481621757424877,
        0.028270016551654027,
        -0.05181524751920711,
        0.02248607833896251,
        -0.10105931162635776,
        0.010320221954639915,
        0.05619742120854546,
        0.09587742305348425,
        0.0006553168432549813,
        0.08957955617693371,
        -0.058242966710408184,
        -0.10392028798194639,
        0.019630949286028123,
        -0.024449593640115428,
        -0.017120311518426502,
        0.030905387696741744,
        0.062358527027087066,
        0.08406039640905899,
        -0.029179385642901415,
        0.019515404854628427,
        0.03083641941065032,
        0.041792269984785455,
        0.01892955036871204,
        -0.006850535826427242,
        0.0663094792725056,
        -0.10157186234099513,
        0.072093781921733,
        -0.07051630642044739,
        -0.06147334676963991,
        0.049073623392537465,
        0.0018978901845124337,
        -0.032590600144083624,
        -0.09049025464053115,
        -0.09474819505574576,
        -0.048804730606498564,
        -0.08282139801552872,
        0.044517546308211475,
        -0.05923427098922797,
        -0.021395124537701666,
        -0.010107517023031667,
        0.05098451640067985,
        0.07812526254590116,
        0.0330063517257585,
        -0.055742496648858726,
        -0.07217021045526822,
        0.023961691999132097,
        -0.027651567296523086,
        0.05169199589907164,
        -0.058429745456076994,
        0.04205274268289722,
        -0.027361735377756578,
        -0.03950127453514494,
        -0.061827906396276604,
        0.05929290011835984,
        0.008305773001305581,
        0.01007482884325401,
        0.07403595358405775,
        -0.09988029797529789,
        0.009686801735829781,
        -0.027119847866430645,
        -0.054817965933236214,
        0.07044612812030668,
        -0.05277874588951912,
        -0.019590276545204812,
        -0.014068306242880562,
        -0.07756598688008116,
        -0.041076836217645775,
        -0.10668229203376386,
        7.404240824213336e-05,
        0.027430088699575427,
        0.10667048095787146,
        0.09843241654864805,
        -0.021346658344143735,
        0.09927638623572625,
        -0.08382539824488155,
        -0.07452701852946404,
        0.008616618856439384,
        0.04031786347575536,
        0.022249493646537166,
        -0.0981481776722882,
        -0.018334343103546227,
        0.0007059612931394593,
        -0.02192102451230755,
        0.056322205823954655
      ],
      [
        0.04118400181619227,
        -0.0912507980054419,
        -0.016050278212169245,
        0.038330151976555975,
        0.05464142676321945,
        0.03446305171386364,
        0.09351986963240418,
        0.0492905831757419,
        -0.024332003966871123,
        0.06470704080621854,
        0.019103851172573013,
        0.034819150426906344,
        -0.004971794288777454,
        0.035423614243585505,
        0.057099568252863366,
        -0.012971455412841676,
        0.05079799553624027,
        -0.024036798619594582,
        0.02651226764610326,
        0.09635990603721996,
        0.007294055290471069,
        -0.0892683794510452,
        0.08871942757594213,
        -0.06778909289771369,
        -0.06859169097769288,
        -0.09383586254670648,
        -0.017974172421229978,
        -0.021201668322566643,
        0.0907824218607526,
        -0.10306266922967754,
        -0.012428481149205048,
        0.037727862812119185,
        -0.11418748612715683,
        -0.02708602707993387,
        -0.07801829720987254,
        0.05977926547964103,
        -0.04571075733373973,
        -0.07625495250222253,
        -0.08825864378006183,
        -0.06302876374783106,
        0.039234839737300804,
        -0.08322593868606822,
        -0.10741142530979564,
        -0.05251091453055246,
        -0.1295244134309057,
        0.04521879170788375,
        0.04860381938132796,
        0.0053001401437395524,
        -0.05443704592177199,
        -0.07728835716648112,
        0.039431845322217475,
        -0.05354556953860606,
        0.014854888766832905,
        0.0970216122023672,
        -0.0666872909303338,
        0.03825799082129577,
        -0.009690340168869965,
        -0.007051474516872416,
        -0.016176833004166457,
        0.03610950362783838,
        0.004543561718683288,
        -0.10020864981385642,
        0.06109255534404276,
        -0.05587259980470688,
        -0.03190932184970416,
        -0.009752330565255629,
        0.02372766251866954,
        0.054937825050063754,
        -0.08172546867722462,
        -0.02419379939644496,
        0.02550746879682826,
        -0.006280752130146066,
        -0.055024878485364984,
        0.05822635516082237,
        0.09931742117755527,
        0.024689673527203207,
        0.007457155930066975,
        -0.07557148065054027,
        -0.005448844749164734,
        0.05983182706266549,
        -0.036124140511358004,
        -0.018369647754215807,
        -0.011342869586323415,
        -0.042249719246210134,
        0.02320919793317889,
        -0.048347780485113984,
        0.09449844393618051
      ],
      [
        0.06774932009143655,
        -0.04248909011083239,
        -0.09534810938888365,
        -0.10443359969325677,
        0.06419328682831324,
        -0.01768662265475164,
        -0.08456084066309756,
        -0.09757462084055502,
        0.0592624008742879,
        -0.0642983800030204,
        0.08802736550643456,
        -0.028754775837665326,
        0.020483313901819088,
        -0.03801771750945741,
        0.03533006716779852,
        -0.07985854840547513,
        -0.054183271713167946,
        -0.08276653749719708,
        -0.1002357340324065,
        0.01387674010751475,
        0.1038430833678744,
        -0.11058038598507103,
        0.08093485296309876,
        -0.04774955952944407,
        -0.07466252282044374,
        -0.10011439129654696,
        -0.03263064611401347,
        -0.08869226021502073,
        0.0032256566858807055,
        -0.01744607544567454,
        -0.06886215553409662,
        0.07641699931455583,
        0.013142943055321536,
        0.05168604295401791,
        -0.05659485684274866,
        0.04767864924016802,
        0.04101485840558807,
        0.058697609307680594,
        -0.0697596742076737,
        0.0965994675787291,
        -0.011177826399269977,
        -0.09079346657823402,
        0.08729595480483789,
        -0.04237584912789126,
        0.07624540922563246,
        -0.0646770212134174,
        -0.09454326305930148,
        0.0013390837273141334,
        0.004088053651145896,
        0.041748412061160464,
        0.028216538079765346,
        -0.029801280923636334,
        0.0564880953189716,
        0.0011187518507904096,
        -0.07878744099039528,
        0.017301437003826598,
        -0.03253587816260819,
        0.004866003554359821,
        -0.07251626774507615,
        -0.05520267255304617,
        -0.050808908089666156,
        0.03507095100442242,
        -0.10494681244241745,
        -0.01794037465376014,
        -0.021039764432249614,
        0.07827080650225329,
        -0.08051595843387337,
        0.0028992095525898817,
        0.06649963069946782,
        -0.020114579553029473,
        0.09763065960912494,
        -0.0526918782746155,
        -0.0010639088984407672,
        -0.03984595234709992,
        -0.04682144673256018,
        -0.0981867974787168,
        0.059357340987061205,
        0.03280974619645726,
        0.07260572094225064,
        -0.00570606104548161,
        -0.06748169639133801,
        0.032660156378203464,
        0.0926840544154151,
        0.011833809653123563,
        -0.051638966345766334,
        0.003654002182179385,
        0.07647524614362201
      ],
      [
        0.07338683520310182,
        0.026992456693605393,
        0.053527470746075174,
        -0.1001885594642874,
        -0.07757202203973745,
        -0.10453035612159636,
        -0.010268267183058222,
        -0.0037932261804856475,
        -0.10295752248522182,
        0.06669715593717433,
        0.011544491271888066,
        0.050389854085269234,
        0.10139545677667305,
        0.05691125051046571,
        0.05246113877420563,
        0.029598402592932362,
        0.0052574991884015345,
        0.06239008617905189,
        0.06475206150857976,
        -0.0384642113059371,
        0.06509532511102833,
        -0.07521793792429274,
        0.00666920439819931,
        0.08982510107997489,
        -0.061104604745346236,
        0.08309206232236371,
        -0.0030026440192016087,
        0.049213337193457836,
        -0.07547817402254006,
        -0.09520193325515193,
        -0.05359727905523,
        0.02019051856788319,
        0.0860869473378164,
        0.01543382954830111,
        0.0045647025073757026,
        -0.026068695978986717,
        0.00018290026868450834,
        0.04569496493946506,
        0.07902231444991928,
        -0.03262824458173052,
        0.03816624367295877,
        -0.03238365221911079,
        -0.05220052697830958,
        -0.09501045837677988,
        -0.019011283642045462,
        0.024133629537215356,
        0.0018899361842854125,
        -0.010573637112836862,
        0.059586141312506447,
        -0.01016939541761659,
        0.04091735394200177,
        0.011668124811936804,
        0.09643434410779421,
        -0.03516724001671617,
        -0.009952730217076837,
        0.060207240247521734,
        -0.04452116338847631,
        0.06257693106347818,
        -0.03787664296535607,
        -0.07382375756241445,
        0.009602097269846304,
        0.013028088716386868,
        -0.03603713741500657,
        -0.048952883336266156,
        0.10666698013773478,
        0.0004503133054232168,
        0.04444632140631016,
        -0.017419538124461665,
        0.010746900289886993,
        -0.04480375525205705,
        -0.06985426196560551,
        0.07135330505649001,
        0.03893409796915715,
        -0.04063319024558509,
        -0.020112895042817172,
        0.014301075824430938,
        -0.09323251144294156,
        0.023804211165623514,
        0.10572652932444984,
        0.039766221247518274,
        -0.009111693117294796,
        -0.08237246989358875,
        0.008026370226431769,
        0.01780083386387908,
        0.04316738914159991,
        0.08268350051506171,
        -0.04986616158322153
      ],
      [
        -0.05953519760888786,
        0.10489320995111706,
        0.022734097415560303,
        0.09332788052889229,
        0.031230522069392048,
        0.09630353781666322,
        0.02858964951563188,
        0.052205789920370164,
        0.03468256608530603,
        0.1100916875544078,
        0.06918337795763478,
        0.12140808733479659,
        -0.014061658317576312,
        -0.06455139380881969,
        -0.052804229725522435,
        0.005372759766283732,
        0.023604706207343524,
        0.050956526865523,
        -0.002216050554632788,
        0.1263066742444097,
        -0.005882417663316526,
        -0.09737360181934371,
        0.010743605710111154,
        0.03518659980717759,
        -0.05592389077724793,
        0.05639741363893855,
        -0.06423289585085029,
        0.08657403378252605,
        0.009927977190818586,
        0.09537465559313597,
        0.03668422173545972,
        0.04583171878180253,
        -0.04317838339416343,
        0.10313361963840885,
        0.10456412812728627,
        -0.07358571565028943,
        0.01818963803079415,
        -0.07033827822674621,
        0.08494640308185233,
        0.08498479963509693,
        0.09673404992498041,
        0.06627336505575397,
        -0.015126682694131657,
        0.04856581716077289,
        -0.09627970655852924,
        -0.07660850441463227,
        0.017322243781649444,
        0.06334784829881931,
        -0.0327937493339739,
        -0.08368525779459161,
        -0.09446855253871733,
        -0.03033821421090177,
        -0.02117959625086714,
        0.08856296602647593,
        0.05350765584985607,
        0.09855162745856043,
        0.06685804155883218,
        0.04741533755418833,
        0.0615527961480189,
        -0.05918375209931424,
        0.05855094825690095,
        0.017306766673543268,
        0.05093273351995753,
        -0.0009820949904854788,
        -0.011112635134455862,
        0.07272082122611492,
        0.06708441987827836,
        -0.06588672210448453,
        0.0770466421974877,
        0.007959780253025565,
        -0.09466254733324543,
        0.06211617453110141,
        0.08146736230083834,
        -0.014048060802990571,
        -0.015118611746544523,
        -0.022690051238220297,
        -0.0655706919696931,
        0.008494454299313642,
        -0.011611655198481915,
        0.036360864549302416,
        0.037341986493734235,
        -0.06606858284660994,
        0.06019436140523214,
        -0.00849094706283021,
        -0.01594067916151476,
        -0.06580450053514515,
        0.028377655789201702
      ],
      [
        0.019123065521424655,
        0.05699005642942012,
        0.058696856837853445,
        -0.04082815710886875,
        0.003273908030925217,
        0.015622652807188749,
        -0.028144730619230514,
        -0.10876055850306104,
        0.0441479761180003,
        0.0766290062179873,
        -0.01774795487019947,
        0.07095160405022216,
        -0.09483978419629348,
        0.022203410714696278,
        -0.03424625601685256,
        0.017635486570801853,
        -0.03829898147560561,
        0.03962440798724658,
        -0.06368614842800788,
        -0.0692879761009934,
        -0.0316042327211741,
        -0.02238084516638148,
        -0.022590465810171594,
        0.09444704959940535,
        0.003841014567365496,
        0.008057666115807199,
        -0.0798885106853189,
        0.006734142657852825,
        0.033653471274872636,
        0.0512723562488093,
        0.08506025261582838,
        0.0255256066291949,
        -0.04221462421953111,
        0.06287642936516101,
        0.10330372087457693,
        0.09919717678412342,
        -0.08308539881294842,
        0.03557890369733269,
        -0.07481973427281577,
        -0.05623023934873086,
        0.05282859265709399,
        0.07204287007414899,
        0.013492520181104776,
        -0.056580128142832684,
        0.004142327117628465,
        -0.047039378444898985,
        -0.05447814014772455,
        -0.0728652213397432,
        0.09074532548228458,
        0.07116333052925827,
        -0.06875745950829812,
        0.0688136924434557,
        0.047546478254677976,
        0.0484686094138069,
        -0.05992399822370702,
        -0.005743954747250055,
        0.05610469967832518,
        0.04119441255303742,
        0.08765466102024821,
        -0.09426522304975328,
        -0.037868937346459026,
        -0.027729427239064363,
        -0.033185396119297814,
        0.1040734726688641,
        0.10019991457589159,
        0.07227518104383457,
        0.030093005380142486,
        0.05894834709903797,
        0.07471731395986796,
        -0.061709188873545755,
        0.027239250082582562,
        0.10364121078270558,
        -0.07152564686782494,
        -0.01419666969005432,
        -0.028295381638727916,
        0.059296788875311625,
        -0.007891661269840875,
        -0.07863192744823755,
        -0.02849983907111763,
        0.028225820032018418,
        0.004919342480556559,
        -0.10013745847726747,
        0.06577479167550664,
        -0.04801716239118371,
        -0.10280226331106602,
        0.02607961117574087,
        0.03188767489714257
      ],
      [
        -0.004298438256721047,
        -0.09199926265852026,
        -0.11864264989630144,
        0.038628620759272966,
        -0.008961579578112827,
        -0.11207262743358005,
        0.0025916139188927162,
        -0.09389472707916849,
        -0.011034437717006455,
        0.03273805457208034,
        -0.07279792495237289,
        -0.025465993871606286,
        0.028351734625399094,
        -0.0585929335858705,
        0.025947496710832088,
        -0.10755514721970665,
        0.028856482048049192,
        -0.07138110919746987,
        -0.03634831428556399,
        0.08917620858421836,
        0.050550126853112276,
        -0.08195104200804686,
        0.06162991381348364,
        -0.026669151253359957,
        -0.004723621085475349,
        -0.04818165007745591,
        -0.07078721158137113,
        0.10421725211373757,
        -0.022512381319638702,
        -0.08299118050970519,
        0.06474665109311026,
        -0.09508408389442073,
        -0.040638547237815605,
        -0.10248626735144958,
        -0.10117714849094443,
        0.10377691555066178,
        -0.004839144194205684,
        0.031535453556848364,
        -0.08188710347737645,
        -0.03314410441674462,
        -0.10278922416060578,
        0.06680215155695467,
        -0.11681179871544135,
        0.0827275157974823,
        0.0789861576150191,
        -0.0733030195055491,
        -0.05427809045051912,
        -0.07854009583451538,
        -0.12184298092445181,
        -0.004760623633488291,
        -0.0005076660588098045,
        0.07885212795611848,
        -0.005228567015465653,
        -0.07567463925352379,
        -0.030761650680431456,
        -0.08577319022535605,
        -0.10560804143129636,
        -0.03617083250169565,
        0.07079335718543846,
        -0.09481661694455978,
        0.09977522839929878,
        0.0730897718431839,
        0.08441947772926438,
        0.020426038685797097,
        -0.04117524229255954,
        0.05517261321327131,
        -0.0750502799390607,
        0.004881967372850366,
        0.07118205024410057,
        0.007148136285106736,
        0.05592728969291917,
        -0.06872283487120173,
        0.07749490596468277,
        -0.07731222785386137,
        -0.03577461025913203,
        -0.00329508933852579,
        0.0894717725572806,
        -0.08312073117487528,
        -0.04920561675045694,
        0.05441200129279992,
        -0.05519330445924265,
        -0.026078146898353322,
        -0.0698475934143302,
        0.10224194560859974,
        0.05726648265406905,
        -0.030651165949385783,
        0.10599335677074226
      ],
      [
        0.10902437448416466,
        -0.03419116667578581,
        -0.075722586543917,
        0.057126114225024324,
        0.037500443936885175,
        -0.039362117560370675,
        -0.09924694175378666,
        -0.041996490689655414,
        0.09900337774984469,
        0.051426977320805395,
        0.05250613630085404,
        0.06561940474210222,
        -0.047973090651862026,
        0.07755074932177204,
        0.007337631330946101,
        0.10667904541974498,
        0.034515877144006356,
        0.049975653829546426,
        0.08262592704298091,
        0.13330541136736654,
        0.06137647197107965,
        0.10172071760639517,
        -0.013797891931055122,
        -0.03889750464435022,
        -0.05219432231958812,
        -0.022823164654666654,
        0.08528439779888612,
        -0.037091888663799,
        -0.0279933120719026,
        -0.09395121123165982,
        0.06057472708198096,
        0.08804491665919752,
        0.0036834504807408083,
        -0.05185381481377066,
        0.05565358334101896,
        0.07635071771238798,
        -0.019045970929063342,
        -0.003084360937585997,
        -0.023932883989454482,
        0.015224655256599126,
        0.04309264980018845,
        0.10057199732492181,
        -0.0266900419107265,
        0.12205978747017857,
        0.01819142449745478,
        -0.0009244325532347053,
        0.07905394993953789,
        -0.043886377698354385,
        0.019641183046673942,
        0.11311413748334459,
        0.07383694677566516,
        0.08393836551410387,
        0.01361945937558833,
        0.03173501084046109,
        0.07274280725169979,
        -0.03687282499514975,
        0.1128105867073711,
        0.06691155278923572,
        0.0037114114212218716,
        0.020562245956529543,
        0.09802200544693514,
        -0.10423348220266011,
        -0.027025981887320583,
        0.08088130366635098,
        -0.09689521812270697,
        0.04114439162919024,
        -0.04008935915496621,
        -0.05482518767616125,
        -0.09649017666211679,
        -0.04676562240163662,
        -0.02931243619208809,
        0.03279496127393796,
        0.06702626059892064,
        0.02187738680672738,
        -0.07429530798135071,
        0.032180920434718076,
        0.09151094618066762,
        -0.055816998318332506,
        0.0440575370496154,
        -0.056259184827224286,
        -0.03786959726648831,
        0.007882542602936643,
        0.07391041822764542,
        0.010073552455207765,
        -0.06165102016625259,
        0.017020010180269354,
        -0.08994808116968092
      ],
      [
        0.027977242998493267,
        0.008067972290269091,
        -0.05020311061721194,
        0.01909789191973891,
        -0.041140514467253426,
        -0.006825684312388924,
        0.007462881564578809,
        0.061275711638433976,
        -0.06967731058327163,
        0.08831010442418084,
        0.06396973274459594,
        -0.06333683392892399,
        0.06383756693035296,
        -0.06581566855108915,
        0.08016365443877249,
        -0.07191932264644926,
        0.06256266633271758,
        0.06676499302323849,
        -0.012586672599467122,
        0.03268912663743376,
        0.04874508062882795,
        0.012992962374067012,
        -0.03587915838913664,
        0.05155689947487862,
        0.08022130139262217,
        0.008879989874118645,
        0.07586173860291968,
        -0.02969241140736725,
        -0.0006564385954251921,
        0.0095354823166513,
        -0.031669970713011676,
        0.0445830301043749,
        0.04378774590104983,
        -0.08041134720435449,
        -0.02362600263193557,
        0.08279499365669578,
        0.00042141327565213934,
        -0.09999272974112461,
        0.05961746853393699,
        -0.07124514380761347,
        -0.014254882238364961,
        0.08193171265998468,
        0.045025661678139525,
        0.04603369920767197,
        -0.13091864153091992,
        -0.061628191734493444,
        -0.091613406166593,
        0.09623006696875938,
        -0.08325117698150913,
        -0.06253493206919283,
        0.038232915835420725,
        0.05889803975579649,
        0.04732926966649896,
        -0.000517022848125932,
        0.0679896591000509,
        0.012340284378493868,
        -0.10157739229268632,
        0.05713483373707683,
        -0.10419523407339802,
        0.09918233674731237,
        0.016238766934074427,
        0.02730290927244723,
        -0.07219697303374512,
        0.07780194387566178,
        -0.02965010552600894,
        0.01148506931135291,
        -0.09262064335236678,
        0.03710719536834314,
        0.07334992324590053,
        0.024426212704672528,
        0.0664771455001034,
        0.014909969312567575,
        0.011921125086886187,
        0.0682411978773683,
        -0.06757749576092438,
        -0.04215485058609255,
        0.06512547277829034,
        0.049658365763796265,
        0.08674576822514642,
        0.04695471375682529,
        0.0387140030425584,
        0.02513102443734688,
        -0.06004129915274834,
        0.05695677691920973,
        0.06525971295283978,
        -0.06214590622041857,
        -0.025282970913211352
      ],
      [
        -0.030123929648186554,
        0.04697465403871165,
        -0.10155864517330877,
        -0.08638314560677188,
        0.08278121293633818,
        0.05450107458890622,
        -0.02858081370971285,
        -0.0727170195707288,
        -0.10885696571371789,
        -0.08201144399451883,
        0.07624877752148791,
        -0.08277232010946077,
        0.05399306341103906,
        -0.08357042709191667,
        0.07201007567540789,
        -0.06605862839177794,
        0.03211614678977791,
        0.049917157005051505,
        -0.017995131028424507,
        -0.056148993716586285,
        -0.004291341569008044,
        -0.06800936758337164,
        0.10108337198536406,
        -0.014101164671663781,
        0.010262631512993971,
        -0.03625099604636297,
        -0.015214293146094314,
        0.0857148848346561,
        0.09575861621529308,
        0.04394583808942321,
        0.10420368215023551,
        0.08854232264042883,
        -0.11872925930964177,
        -0.0575064099771389,
        -0.08975153010076757,
        0.07364009219286391,
        -0.07866223711167605,
        0.06255150007988879,
        -0.07186940229540043,
        -0.06487463659219159,
        -0.043068897353473995,
        0.08201220916750983,
        -0.06285379306598136,
        -0.06890802756679318,
        0.03472363038063385,
        -0.057711020354218705,
        0.009668598653225011,
        -0.009178186319098483,
        0.025773097199730925,
        0.011672969478180402,
        -0.06490278777948524,
        -0.07984457812583032,
        0.07499126038567351,
        -0.06521135713451924,
        -0.06497597108935546,
        0.011194940757416855,
        0.0951831093739855,
        -0.042263264457323715,
        -0.035563925305001146,
        -0.040000949448090656,
        -0.010790142698110272,
        0.08895539829387768,
        0.005566096702522651,
        0.01095715363325685,
        -0.0397220076589764,
        -0.03844675508321738,
        -0.007658162217435951,
        0.0651727716377648,
        0.08622802613184893,
        0.06711475372698229,
        -0.06036645352447594,
        0.092947696065797,
        -0.042239574112977206,
        -0.032116994390457496,
        -0.00592859059572835,
        -0.10598952224364139,
        0.0034663339423557475,
        0.094765557270434,
        -0.08219354529662772,
        0.09880908389492501,
        -0.0164553359283369,
        -0.057280041660883,
        0.0077033541325805055,
        -0.08776825297163685,
        -0.03766029226145737,
        0.05202989002495728,
        -0.04094651882520191
      ],
      [
        0.04594880315508915,
        -0.04820048005604187,
        0.050356238045630976,
        0.04433088133712864,
        0.012762649827679795,
        -0.00932735546023489,
        -0.06298960726602068,
        -0.08659208223423619,
        0.0013086330201582785,
        -0.03622975438331002,
        0.07095985219139138,
        -0.07798386008684598,
        -0.09889784442163921,
        -0.043778546966213534,
        0.014901484996511841,
        0.0477624162167231,
        0.02248826247969393,
        -0.05439226066200991,
        -0.10046342953379041,
        0.03845286691819182,
        -0.08334268617363161,
        0.05421321027295871,
        0.02679468661700393,
        0.08330730936568169,
        -0.016405916995027844,
        -0.007543928670393362,
        0.029481845588038874,
        -0.0844294405371533,
        0.08392327871955219,
        0.005681116078940059,
        0.045757901628671376,
        -0.10159130365867447,
        -0.052886322491485095,
        -0.07934736272774225,
        -0.03898136503761049,
        -0.024123149170024897,
        0.09093592738452791,
        -0.006773466624446865,
        0.010581744584459186,
        -0.016616595056789803,
        -0.020838937818909435,
        -0.09326461335747016,
        0.034054429734433816,
        -0.0022058264989746747,
        -0.07734224653766131,
        0.05204470512023168,
        -0.10620329725234863,
        0.08085651813198881,
        3.487491819089256e-05,
        0.08083546834754297,
        -0.002985355012801379,
        -0.07895026549972325,
        -0.0024774084553911956,
        -0.06386528510918206,
        0.006818132234091486,
        -0.1057113158243499,
        0.04012151599584752,
        0.05611090099504422,
        0.014753176560383538,
        -0.03551848059031296,
        0.037143698563388394,
        -0.022834282002481207,
        0.09711105041308683,
        0.08656295733212845,
        -0.014193754180187357,
        0.062054943298164904,
        -0.052835715120213504,
        0.09181327900232965,
        0.03607752194683578,
        -0.1073224403750434,
        0.031011735441127668,
        -0.025748816712268467,
        0.031631430208738175,
        -0.07807437990430414,
        -0.033353942657943496,
        0.08445132841167143,
        0.015136562468897058,
        0.0008524495172740147,
        0.037007532903939766,
        -0.08302146108176096,
        -0.07726919699806171,
        -0.023242416096218313,
        -0.0313793784778092,
        -0.0074978506296084595,
        0.009531344364743342,
        -0.09200076624773709,
        -0.043592796333059916
      ],
      [
        0.04592051769054137,
        0.04874894657606957,
        0.012364882312692274,
        -0.1042597838990335,
        0.02342330841414812,
        -0.09138553347065,
        -0.07482661820233664,
        -0.05548776864091162,
        0.1011086280703335,
        -0.04331717169168398,
        -0.05109376304597338,
        -0.07757852663357917,
        -0.04661785527601265,
        0.04186007960898835,
        -0.024141139411171127,
        -0.026594542136617043,
        -0.09849341627342488,
        -0.08483960844520223,
        -0.11351314443463918,
        0.06970461117574638,
        0.07061686571771955,
        -0.024582720234432927,
        0.015993305533919675,
        -0.030599875391400407,
        0.03339160883691729,
        -0.05634917688058251,
        -0.033694254925791034,
        0.048228137904356976,
        -0.016207256857972165,
        0.0699594886549414,
        0.0036349436449111135,
        -0.12833969852938748,
        -0.023869225123420688,
        0.06143084905578412,
        -0.07152112664783462,
        -0.011094474663378652,
        0.008767242720534628,
        0.0814495500288807,
        -0.11133453740187796,
        0.044050825012089914,
        -0.09721451469377254,
        0.040870226160498534,
        0.08128489386026057,
        0.025215889271265494,
        -0.13655308064195762,
        -0.05581813373962696,
        -0.01557874467890667,
        0.07889927363309249,
        -0.0395530742430678,
        -0.03749601624733849,
        0.044148444100870654,
        0.04981791527572977,
        0.10615097472520815,
        0.016537641987565927,
        0.03992128335880869,
        0.07286233087671823,
        -0.06583985147083378,
        -0.11625646401755295,
        0.07152996684623766,
        0.018309616393250475,
        0.07827875162327437,
        0.07362647514646739,
        -0.09683283291434198,
        -0.0484299238768134,
        0.07510822740615848,
        0.0068292247943234465,
        0.06423139186508296,
        0.08700421608619258,
        -0.10395567951668543,
        -0.05280765224687378,
        -0.09028563884375425,
        -0.058511964112982,
        -0.023914479824663454,
        0.08502043473731188,
        -0.06050881571093723,
        -0.02109309401788626,
        -0.01586244003640845,
        0.09540189719044688,
        0.036725525854897294,
        -0.020974003827271968,
        -0.08455074193766424,
        -0.05505438199823974,
        -0.08174802746622163,
        0.10351315045253577,
        -0.04704272844093224,
        -0.07474811604986734,
        -0.09751886841860437
      ],
      [
        -0.04442672956521968,
        0.02574878812813408,
        0.016833897330386545,
        0.02912272051615777,
        0.05850559137178414,
        -0.05606220178741713,
        0.030948921092098233,
        0.0227646287127637,
        0.10849731512488388,
        -0.004281013849543196,
        -0.044184673932105095,
        -0.045252472476027907,
        0.05857003806635132,
        0.07152590440091237,
        -0.03743406244985337,
        0.08523320939397672,
        0.1076607781442146,
        -0.011542241873878685,
        -0.07075647965345434,
        0.11438668894967265,
        -0.03941289179868479,
        0.11822179509602725,
        -0.018611993058643257,
        0.0037475954203542963,
        -0.008249117536150444,
        -0.0885926864139343,
        -0.02962304110970046,
        -0.08823700801099699,
        0.008782001286273815,
        -0.07159732933139358,
        0.028785081547456695,
        0.014180916210001143,
        0.11414297939778523,
        0.092448498667264,
        0.025488408745806376,
        0.06385838394140503,
        -0.019650925781332956,
        0.06884268515108878,
        0.03169163389582506,
        0.0770388319491033,
        0.08990436356865145,
        0.04503831393663014,
        0.09813907265305387,
        -0.08575435488350377,
        0.10387753526816082,
        0.00701197106980742,
        0.009723728578058465,
        -0.04549439093679894,
        -0.020441847214023496,
        0.02280608947245952,
        -0.024371996595585456,
        -0.10052650715518253,
        -0.029926154204295487,
        -0.06845715220072149,
        0.1218288544527691,
        -0.07147852111569891,
        0.057368894232721186,
        0.06611028068443409,
        0.11019623925600848,
        0.05348349054089166,
        0.05093093349800159,
        0.02542268856445171,
        0.1079524950188073,
        0.07328276471512069,
        0.0013516357820546592,
        0.10107837286082244,
        0.017677870867249736,
        -0.01914282039383688,
        -0.04457065877805101,
        0.026325198661655745,
        0.012038803287613434,
        -0.04047089596812998,
        -0.005821385463624736,
        -0.014525436102940954,
        0.0795661920532263,
        -0.0548579054280135,
        -0.09165527908303793,
        0.0024489873899504384,
        0.011378366560040752,
        -0.09650502678625318,
        -0.01020574851412325,
        -0.07799558640281129,
        -0.06333166594778293,
        0.06082410862687327,
        -0.09864517491216328,
        -0.05953525594762216,
        0.0003083562202003435
      ]
    ],
    "input_size": 87,
    "output_bias": 0.008712665858253473,
    "output_weights": [
      0.06222119165577389,
      0.15891060349055897,
      -0.022759215043143915,
      0.0419185912626927,
      0.12697701011120133,
      0.03535127448757009,
      0.025310395633475747,
      -0.00331506358293911,
      -0.17229591425199797,
      0.08804847600953708,
      -0.13697004115397338,
      0.08003417654709628,
      0.058192463615142874,
      0.0105301006259116,
      -0.07050035488877512,
      -0.054166210087370936,
      -0.034138095114320345,
      -0.12422325746276386,
      0.03070570614541124,
      0.05586308533449444,
      -0.1491971474230703,
      -0.04092674285221925,
      0.028195690541373265,
      -0.07702878621696711,
      0.037580569989541686,
      -0.109804148430657,
      -0.104178832555063,
      -0.0668995240928935,
      -0.10564682545397008,
      -0.09745616676280278,
      -0.14726138983810058,
      0.027824927604589555
    ],
    "policy_bias": [
      -0.029461389115913776,
      -0.029507665164821346,
      -0.042611481674855844,
      -0.042923257335023494,
      0.011651005254104499,
      -0.04272720341205377,
      0.030131303481333215,
      -0.024174326551733204,
      -0.03180759009030195,
      0.0078485275600953,
      -0.013817552521538186,
      -0.03440186872669881,
      -0.029929460953209964,
      -0.041209513524598826,
      0.06585740542882523,
      0.24708306734639127
    ],
    "policy_names": [
      "PLACE_SETTLEMENT",
      "PLACE_ROAD",
      "ROLL_DICE",
      "DISCARD",
      "MOVE_ROBBER",
      "STEAL_RESOURCE",
      "BUILD_ROAD",
      "BUILD_SETTLEMENT",
      "BUILD_CITY",
      "BUY_DEV_CARD",
      "PLAY_KNIGHT",
      "PLAY_ROAD_BUILDING",
      "PLAY_YEAR_OF_PLENTY",
      "PLAY_MONOPOLY",
      "MARITIME_TRADE",
      "END_TURN"
    ],
    "policy_weights": [
      [
        0.07460880628151216,
        -0.038784565704372526,
        0.05449672973660136,
        -0.0016815845407548676,
        -0.08272576329986767,
        -0.009868892267934302,
        -0.09330269004502381,
        -0.014149276431178142,
        -0.09315035434732234,
        -0.08953903422564442,
        -0.005984152916922684,
        -0.035209387513923364,
        -0.060666035419912265,
        -0.08476984522569095,
        -0.054639710346993414,
        0.10381515978844373,
        0.10223677049764147,
        -0.049831021450363784,
        -0.1155476612711502,
        -0.006809283037477659,
        0.0840243706726901,
        -0.0443052273110538,
        0.09991174523662952,
        -0.031413089582621186,
        -0.05708051209175048,
        -0.07421588367044087,
        -0.0639765327420222,
        0.0007022007853307514,
        -0.031135457594154307,
        -0.025342258831977722,
        0.05307501313635573,
        -0.011772870358089606
      ],
      [
        -0.10377719884383242,
        -0.07367289419319062,
        0.08810915327885252,
        -0.08040743205100381,
        -0.03449653399695662,
        0.04354024398504868,
        0.11077632782668805,
        0.004191422748878542,
        0.04620398310115799,
        0.01790392185785217,
        0.06758677225673201,
        -0.011731862893036875,
        -0.053645959329477196,
        -0.002611341764089382,
        0.019012882598559017,
        -0.07000931969016057,
        0.020708628101887058,
        -0.015567457582506687,
        -0.03889175076803069,
        -0.006371411253017668,
        -0.02767678552947707,
        -0.016788335177785593,
        0.09879557171334705,
        -0.053272677049731744,
        -0.012129957394035752,
        -0.08950976342108143,
        -0.0615619990664729,
        0.061334951291583194,
        0.012206819259778477,
        0.03959231176661767,
        0.09352917181250484,
        0.03039453832931676
      ],
      [
        0.07867586662607262,
        0.09433378416430276,
        -0.049991323907814675,
        0.012885420606578133,
        -0.11573742693332163,
        0.03393866342995737,
        0.09727192162631879,
        0.04442816385463807,
        0.07362826514304974,
        0.005651622317559031,
        0.059809096418679424,
        -0.06455438783474303,
        -0.0400541034528588,
        -0.10281181008468225,
        -0.08830542789437011,
        0.06313597862569456,
        -0.0857101717760826,
        0.04956714844720144,
        -0.06679430185009631,
        0.06962727804892511,
        0.09909986946557581,
        -0.08430562393915546,
        0.009851754522706499,
        0.01785435674364895,
        -0.014462397788715975,
        -0.08542422584498106,
        -0.0219516560441567,
        0.036131942688198214,
        0.018936562410172626,
        -0.0719520239290092,
        0.017186139077215883,
        -0.11484954105547848
      ],
      [
        -0.08715795565308974,
        -0.019188551647416795,
        0.009116513546793822,
        -0.04241447950997637,
        -0.06544084895516483,
        0.09774531459897501,
        -0.07421921726480263,
        -0.07675642431857504,
        0.044201613492770846,
        -0.04859965035072343,
        0.0784562002603148,
        0.06633882197572451,
        0.007519134767012838,
        0.014125021555362634,
        -0.03499305209382681,
        0.05707164859258018,
        0.10046185040661673,
        0.01815606500258491,
        -0.04491287327039073,
        0.08495432151601855,
        -0.10690148299113639,
        0.068548289897383,
        0.09023023702687855,
        -0.07572644899230271,
        0.023199655548132466,
        -0.06703936991470626,
        -0.04422963998282905,
        0.08733234440697268,
        -0.07412302149958724,
        -0.06544506542412036,
        -0.06550119234535061,
        -0.08725664886450628
      ],
      [
        -0.05643044866706221,
        0.09571076827751308,
        0.02030970217534847,
        0.006567391896915787,
        0.06374812859361367,
        0.039897564330009946,
        0.10802943721202792,
        -0.023880096314294556,
        0.005242764278155481,
        0.09257453815395213,
        -0.03589074379330469,
        0.0908323581877542,
        -0.028687793874112907,
        -0.0057703871548116185,
        -0.027667810255689176,
        -0.07648982854843883,
        -0.02440195593822071,
        0.05110688018532322,
        0.07314028816362586,
        0.023315338092498722,
        -0.09183046519027911,
        0.017764373503983966,
        0.032324905937455004,
        0.030789628442281676,
        -0.05443028960773119,
        -0.10157640781913131,
        0.009388716982469176,
        -0.04574362146244801,
        0.06878100289479805,
        0.06650829584576728,
        -0.08943752607821746,
        0.06166919934144217
      ],
      [
        -0.02822354176245036,
        0.0016125503206513975,
        0.00396638697397416,
        0.06344530472483657,
        -0.10053596423536709,
        0.09931666349210914,
        0.1006819634815225,
        -0.018325111039965574,
        0.09261893832703975,
        0.05473850283496408,
        0.03990410419219187,
        -0.0001246649034697774,
        0.052983653030876814,
        0.0017773189443978153,
        0.052556339287763376,
        -0.05232164504839093,
        -0.01724181594245727,
        -0.05891676445414404,
        -0.12364602253446876,
        0.04018304182057872,
        0.021628329793058447,
        -0.041872695119683175,
        0.06067785631672144,
        0.03121781965338867,
        0.05019035575275058,
        0.03490518915233297,
        -0.06380740910358117,
        0.02645907230497898,
        -0.03790160978514174,
        0.008067932981689271,
        0.07517488196831819,
        -0.011125430842549338
      ],
      [
        0.0905688923812358,
        0.05996266318919302,
        -0.019294853629968255,
        -0.012696059831984316,
        -0.036256836546976624,
        -0.01165778715765089,
        -0.09868084957791459,
        0.07312839073425272,
        -0.048666920301108585,
        -0.08267653724493203,
        -0.07879092838041979,
        -0.025568056120559,
        -0.040716916754658806,
        0.03785878861420572,
        -0.026089531362926244,
        -0.06568422397314165,
        -0.006233775138787537,
        0.00943351739480156,
        0.016467460231514377,
        -0.02159809649052758,
        0.008482293759708976,
        0.0922183707886356,
        -0.023407054505819702,
        0.057224534353328,
        -0.010983543260720258,
        0.03369615235823374,
        -0.006509748178680204,
        0.07072952281422044,
        0.09228660906190353,
        0.043304628329421765,
        0.04790353993573177,
        -0.0858913944259734
      ],
      [
        0.03053537930865301,
        0.049890129383599546,
        -0.0657329162673543,
        0.05042266107581966,
        0.06211167468373237,
        0.09202733873614383,
        -0.013708479902890333,
        -0.07133956261145051,
        -0.07069587100564054,
        -0.10913163734242691,
        -0.0003235524782389684,
        0.0994183377996578,
        -0.024527731685943244,
        -0.0028417388002120697,
        -0.08360737076645405,
        0.05745435011478361,
        -0.03284528164321843,
        -0.051415379399320345,
        0.058439530148947774,
        0.039196498921773335,
        0.014830433678144636,
        0.05369621346475529,
        -0.08117386222263472,
        0.035805570130607416,
        0.01293229370928096,
        0.03482785936909986,
        -0.048942903570932575,
        -0.014345530625169217,
        -0.0805887510915654,
        -0.008560904222246079,
        -0.0022300132932357437,
        0.007128282742621915
      ],
      [
        -0.01604594226679985,
        0.038010891650158175,
        0.020195660059677056,
        0.09592939906648013,
        -0.08185035150916951,
        0.03538576344015101,
        0.06007801574997127,
        0.058009340220530566,
        -0.0777953328094649,
        -0.060409380418356494,
        0.043313399604681925,
        0.020940520849102764,
        -0.031072683285306737,
        0.05644296744006097,
        -0.020438978030169443,
        -0.04759341649434762,
        -0.00800343942250532,
        -0.06918193284742595,
        0.040071349358253135,
        0.09823769356656119,
        0.045936407066326984,
        0.026156970840546537,
        -0.09059794334500391,
        0.08249169110078326,
        0.0747509194925859,
        0.08186282267920163,
        0.03138444740149375,
        -0.09467917704738053,
        -0.02896489545570771,
        -0.0035948305810521853,
        0.02702621363132172,
        -0.07186446254882911
      ],
      [
        0.0879754705803283,
        -0.004170283739910294,
        0.04423557541520813,
        0.08699132636006282,
        -0.046577619585858876,
        -0.06696067400801897,
        0.012531749386791325,
        -0.08182305609191254,
        -0.09991589933929365,
        -0.09734585232267078,
        0.05570020352983467,
        0.0766804215645109,
        -0.026050645567681902,
        -0.004589737584666823,
        0.017095984945033907,
        -0.042826029687641,
        -0.03660298339253493,
        -0.02222125636669962,
        -0.04728622595211688,
        0.0436826467093101,
        0.011183990586804927,
        -0.08733884163704417,
        -0.08409844625745383,
        0.05644958297568044,
        -0.000778554587419636,
        0.06960244854638659,
        0.052941786666944914,
        0.021846322852174225,
        -0.05627046874088875,
        0.021434441063943495,
        -0.011390574264090696,
        0.05761999835681535
      ],
      [
        -0.05704417307596597,
        0.10892415229608346,
        0.09995994034535648,
        0.09889731192750992,
        -0.028010667329459702,
        -0.06492158389008695,
        -0.008216347349383351,
        0.05493241489897764,
        0.030532425976352907,
        -0.10797600328231487,
        -0.06032105397265471,
        0.09664355719379729,
        0.009339071294515578,
        -0.09764373687278453,
        0.012203833052385165,
        0.05982933464945,
        0.0864004558183701,
        -0.08519896030905265,
        0.03978243580846002,
        -0.08604572261019305,
        0.028093475994323765,
        0.012807479483412534,
        -0.10543194789480981,
        -0.07566116128088347,
        -0.017715822574068178,
        0.048450982262028215,
        0.09766786959879624,
        -0.05028783368422614,
        -0.04366230732133711,
        0.0411125687482477,
        -0.007401226223129219,
        0.016720318009954386
      ],
      [
        0.06116803643810073,
        0.06660836634928208,
        -0.004278342748369898,
        -0.0403300937213498,
        0.030302368568249836,
        0.025049759849709214,
        0.044109595764917874,
        -0.005808217318047864,
        0.042207098579624756,
        -0.0642920771670782,
        0.06732093255862347,
        -0.026763795726588435,
        -0.011747480169044061,
        -0.10764712959797146,
        0.06383748991360347,
        0.016409618673836654,
        0.028435893775638224,
        -0.04330372698293443,
        -0.10677152124570902,
        0.004106004412022007,
        0.0015969492676954828,
        -0.05443257696821465,
        0.06235881582058566,
        -0.1138032525472058,
        0.07078210720557877,
        0.10191418370518872,
        -0.10259144665445213,
        0.08970953635319202,
        0.10543636898653268,
        -0.03015736985081271,
